digraph Tree {
node [shape=box, style="filled, rounded", color="black", fontname=helvetica] ;
edge [fontname=helvetica] ;
0 [label="weight <= 5.633\nentropy = 1.0\nsamples = 800\nvalue = [400, 400]\nclass = tuna", fillcolor="#ffffff"] ;
1 [label="length <= 40.911\nentropy = 0.567\nsamples = 442\nvalue = [59, 383]\nclass = salmon", fillcolor="#58ace9"] ;
0 -> 1 [labeldistance=2.5, labelangle=45, headlabel="True"] ;
2 [label="entropy = 0.191\nsamples = 376\nvalue = [11, 365]\nclass = salmon", fillcolor="#3fa0e6"] ;
1 -> 2 ;
3 [label="entropy = 0.845\nsamples = 66\nvalue = [48, 18]\nclass = tuna", fillcolor="#efb083"] ;
1 -> 3 ;
4 [label="weight <= 6.374\nentropy = 0.276\nsamples = 358\nvalue = [341, 17]\nclass = tuna", fillcolor="#e68743"] ;
0 -> 4 [labeldistance=2.5, labelangle=-45, headlabel="False"] ;
5 [label="entropy = 0.727\nsamples = 84\nvalue = [67, 17]\nclass = tuna", fillcolor="#eca16b"] ;
4 -> 5 ;
6 [label="entropy = 0.0\nsamples = 274\nvalue = [274, 0]\nclass = tuna", fillcolor="#e58139"] ;
4 -> 6 ;
}
