digraph Tree {
node [shape=box, style="filled, rounded", color="black", fontname=helvetica] ;
edge [fontname=helvetica] ;
0 [label="length <= 36.253\nentropy = 1.0\nsamples = 800\nvalue = [400, 400]\nclass = tuna", fillcolor="#ffffff"] ;
1 [label="weight <= 6.896\nentropy = 0.403\nsamples = 374\nvalue = [30, 344]\nclass = salmon", fillcolor="#4aa6e7"] ;
0 -> 1 [labeldistance=2.5, labelangle=45, headlabel="True"] ;
2 [label="entropy = 0.213\nsamples = 356\nvalue = [12, 344]\nclass = salmon", fillcolor="#40a0e6"] ;
1 -> 2 ;
3 [label="entropy = 0.0\nsamples = 18\nvalue = [18, 0]\nclass = tuna", fillcolor="#e58139"] ;
1 -> 3 ;
4 [label="weight <= 4.828\nentropy = 0.561\nsamples = 426\nvalue = [370, 56]\nclass = tuna", fillcolor="#e99457"] ;
0 -> 4 [labeldistance=2.5, labelangle=-45, headlabel="False"] ;
5 [label="entropy = 0.928\nsamples = 70\nvalue = [24, 46]\nclass = salmon", fillcolor="#a0d0f3"] ;
4 -> 5 ;
6 [label="entropy = 0.185\nsamples = 356\nvalue = [346, 10]\nclass = tuna", fillcolor="#e6853f"] ;
4 -> 6 ;
}
